%YAML:1.0
opencv_ml_svm:
   format: 3
   svmType: EPS_SVR
   kernel:
      type: LINEAR
   C: 1.0000000000000000e-002
   p: 1.0000000000000001e-001
   term_criteria: { iterations:100 }
   var_count: 576
   sv_total: 1
   support_vectors:
      - [ 8.85910634e-003, 2.88425684e-002, 2.40752436e-002,
          3.07582389e-003, -1.03562919e-003, -2.96746637e-003,
          5.91459591e-003, 7.36272428e-003, 1.29838362e-002,
          2.86947824e-002, 5.20250015e-002, 3.65363322e-002,
          2.96600815e-003, 7.14506768e-003, 6.19712193e-003,
          1.10943737e-002, 1.03682196e-002, 4.24198806e-003,
          5.65405935e-003, 1.03053953e-002, 1.56778675e-002,
          1.56177590e-002, 2.03921068e-002, -9.48501192e-003,
          -1.81582069e-003, -8.16461630e-003, 5.31422580e-003,
          1.48366345e-002, 1.34268785e-002, 8.00218713e-003,
          3.82877863e-003, 3.94543866e-003, -1.16767753e-002,
          -7.64539978e-003, -9.07945680e-004, 2.48174369e-003,
          2.27171294e-002, 4.25082631e-002, 3.25375050e-002,
          2.01346166e-002, 1.55757461e-002, 1.46924322e-002,
          2.58243680e-002, 1.30823888e-002, -4.03257459e-003,
          3.37793538e-003, 8.24810658e-003, 1.37218041e-002,
          1.99796744e-002, 1.01878960e-002, 1.35531453e-002,
          1.80438999e-002, 8.01293552e-003, 1.48550933e-003,
          5.37827145e-003, 5.39309578e-003, 1.50052120e-003,
          1.68118216e-002, 1.29466355e-002, -4.17188602e-003,
          -1.20588823e-003, 1.21553231e-003, -9.37806163e-003,
          -1.33714231e-003, 1.68628118e-003, 4.75637102e-003,
          1.39278835e-002, 7.75475893e-003, 7.64396135e-003,
          1.18005294e-002, 1.60907060e-002, 5.71803376e-003,
          7.74570741e-003, 5.42904390e-003, 1.12425294e-002,
          1.52163738e-002, 1.22315595e-002, 1.59525629e-002,
          1.70537271e-002, 1.06535628e-002, 2.02771220e-002,
          1.24842077e-002, 6.03351742e-004, 6.66012987e-003,
          3.38060339e-003, 4.35061846e-003, 2.38374118e-002,
          2.47789100e-002, 2.46933531e-002, 2.22199075e-002,
          1.07357400e-002, 2.00960375e-002, 1.11115277e-002,
          1.09426286e-002, 1.45499082e-002, 1.25670899e-002,
          1.67604703e-002, 1.93597525e-002, 2.17566565e-002,
          -2.60477443e-003, 6.51559094e-003, 1.95672153e-003,
          7.61996582e-003, 4.28182120e-003, 2.09408253e-003,
          1.01951966e-002, 5.44852996e-003, 2.93761375e-003,
          2.73799654e-002, 1.08508812e-002, 1.84364356e-002,
          -1.32200439e-002, 4.00596997e-003, 3.18723544e-002,
          1.35018779e-002, 7.18265027e-003, 1.49635524e-002,
          2.24534497e-002, 7.55111501e-003, 9.14410688e-003,
          -1.89180747e-002, 1.67483557e-002, 3.31649408e-002,
          -1.56567810e-004, 2.65782303e-003, 1.26241902e-002,
          9.46405157e-003, 8.24661274e-003, 1.28002958e-002,
          -4.17660549e-003, 1.79001633e-002, 1.87102519e-002,
          1.11293430e-002, 6.36994746e-003, 2.82010366e-003,
          -5.06087812e-003, -5.73420897e-003, 2.67511141e-003,
          -7.68794445e-003, 1.33645432e-002, 3.09006255e-002,
          -7.13547505e-003, -4.73426189e-003, -2.87314900e-003,
          2.25223019e-003, -1.37229739e-002, -2.08084825e-002,
          2.89472900e-002, 4.08349633e-002, -1.41140409e-002,
          -4.64644935e-003, -1.41989870e-003, 8.76034983e-003,
          -1.20444398e-003, -1.38534978e-002, -1.82079393e-002,
          5.87412296e-003, 2.14365572e-002, -7.93283898e-003,
          -1.18750157e-002, 2.18482292e-003, 4.32526181e-003,
          3.50648561e-003, -2.68808077e-003, -6.57639466e-003,
          1.88320167e-002, 2.39328295e-002, 3.27868666e-003,
          -6.00009831e-003, -1.59409666e-003, 6.55705854e-003,
          -4.92358906e-003, -4.19313926e-003, -1.07071539e-002,
          1.74360513e-003, 2.25673597e-002, 8.76997225e-003,
          -6.37780270e-003, -1.24843464e-005, 1.78065838e-003,
          6.45262888e-004, -3.95266712e-003, -6.28088275e-003,
          1.40643504e-003, 1.22887678e-002, -8.34049098e-003,
          -1.46608241e-002, -1.83644006e-003, -6.75989687e-003,
          3.65716801e-003, 5.69300214e-003, -2.65641557e-003,
          9.68694873e-003, 1.13418819e-002, -2.40830285e-003,
          -9.46826953e-003, 5.21406438e-003, 1.13353820e-003,
          -7.86556222e-004, 2.76358775e-003, -7.14000640e-003,
          2.18150308e-004, 1.53494356e-002, 1.76973939e-002,
          5.34160389e-003, 1.00850780e-003, 4.30997089e-003,
          2.83864280e-003, 7.21589383e-003, 3.61827225e-003,
          3.03188264e-002, 8.14163126e-003, 1.86101254e-002,
          6.07451657e-003, 8.22199788e-003, 4.99924412e-003,
          4.63726185e-003, 8.93385056e-003, -9.38877929e-003,
          -8.16658046e-003, 1.99116096e-002, 3.35114286e-003,
          1.41207559e-003, 8.82018823e-003, 1.34808226e-002,
          -8.67170654e-003, -5.21600060e-003, -9.42699611e-003,
          -4.89342585e-003, 3.33623774e-002, -5.44352178e-003,
          -2.51109968e-003, -4.38254938e-004, -3.29336361e-003,
          -2.91933492e-003, 9.61018784e-004, -1.40498963e-003,
          1.28910812e-002, 2.75463928e-002, 1.04807606e-002,
          -1.62724766e-003, 7.69587513e-003, 4.16056858e-003,
          -9.41321906e-003, -1.10300267e-002, -1.01468349e-002,
          9.45655536e-003, 2.77634207e-002, 2.52973079e-003,
          -1.44546917e-002, -1.11569986e-002, -8.95071588e-003,
          3.77951143e-003, 1.90950697e-003, 4.24650405e-003,
          -1.26750711e-002, 4.18234803e-002, 9.78886988e-003,
          1.09402440e-003, 6.23231754e-003, 9.42372438e-003,
          -1.09728845e-002, -7.02899229e-003, -7.09867058e-003,
          -2.12159604e-002, 3.01382858e-002, 1.74995121e-002,
          -1.43505959e-002, -5.03184833e-003, -2.20515393e-003,
          1.17479020e-003, -4.22074273e-003, -3.05311708e-003,
          -6.17529685e-003, 2.58108955e-002, 7.12746242e-003,
          -7.72760063e-003, -7.36457296e-003, 4.63328703e-004,
          -1.23243425e-002, -1.17440354e-002, -1.99449863e-002,
          -1.37310829e-002, 2.28649210e-002, -2.08449713e-003,
          -2.13998780e-002, -1.26320506e-002, -9.26327612e-003,
          -8.24445859e-003, 1.34949514e-003, 5.96814556e-003,
          1.09881312e-002, 2.87676398e-002, 2.18774918e-002,
          -1.43938316e-002, -4.44161193e-003, -7.48114148e-003,
          -1.13897992e-003, 2.06260057e-003, -7.06904451e-004,
          6.56267628e-003, 2.71890033e-002, 1.06539130e-002,
          -2.60053971e-003, -5.22397342e-004, 1.54025643e-003,
          -5.28875319e-003, -9.01727937e-004, 5.39446902e-003,
          2.24123779e-003, 3.60481627e-002, 3.50910537e-002,
          -6.55627111e-003, 5.24503412e-003, 9.82700149e-004,
          4.32312535e-003, -2.13795900e-003, 7.41346332e-004,
          5.66788309e-004, 1.72633901e-002, 1.39645450e-002,
          -1.47535335e-002, 1.15193054e-003, 1.19582489e-002,
          1.59068976e-003, 3.86544061e-003, -4.04042751e-003,
          6.58062194e-003, 2.05027182e-002, 1.52996955e-002,
          3.37593746e-003, -3.82417673e-003, -1.51242217e-004,
          5.08232508e-003, 7.04337610e-003, 5.16956765e-003,
          2.98101008e-002, 9.90232266e-003, 2.00818069e-002,
          -1.47311995e-003, 5.90622891e-003, 5.08608646e-004,
          -5.72276441e-003, -8.94236285e-003, -6.58275140e-003,
          5.63847320e-003, 1.55089414e-002, 9.13338456e-003,
          -1.35851949e-002, -1.03910882e-002, -1.35892723e-003,
          8.37028306e-003, 6.03517191e-003, -5.82688395e-003,
          8.42622016e-003, 9.29836940e-004, 1.44716622e-002,
          -1.32240192e-003, 1.02085322e-002, 6.71799667e-003,
          4.35246713e-003, 4.44436818e-003, 2.82717869e-003,
          1.31471679e-002, 2.67671924e-002, 5.69192832e-003,
          -1.05661610e-002, 4.51214332e-003, -1.44408410e-003,
          -2.87651154e-003, 1.93869942e-004, -4.89898911e-003,
          9.61095653e-003, 2.23499853e-002, -6.27102656e-003,
          -1.20602548e-002, -9.95928422e-003, -1.03162127e-002,
          1.57440342e-002, 9.99220461e-003, -3.19813960e-003,
          9.36724595e-004, 1.04308724e-002, -4.16783383e-003,
          -8.33901670e-003, 1.15210889e-002, 1.23484321e-002,
          -3.66153801e-003, -2.21892772e-003, -1.10976333e-002,
          7.25045335e-003, 2.49408558e-002, -1.70358997e-002,
          -1.68615039e-002, -3.03678168e-003, 9.73872840e-004,
          3.09898006e-003, 1.19374483e-003, -4.36811615e-003,
          -5.60604781e-003, 2.66107898e-002, -7.04632606e-003,
          -3.92159307e-003, -8.66904296e-003, -3.09241586e-003,
          -1.07003674e-002, -9.85434093e-003, -1.69944204e-002,
          5.73868956e-003, 2.96726190e-002, -1.97963435e-002,
          -1.33009432e-002, -1.26276556e-002, -1.40710482e-002,
          1.02270059e-002, 8.23326223e-003, -2.80200574e-003,
          1.40479729e-002, 3.12353633e-002, -1.24138407e-002,
          -2.79944483e-003, 8.07666802e-004, 2.40751752e-003,
          1.58484722e-003, -1.97369512e-003, -1.14599504e-002,
          3.58559676e-002, 1.98335294e-002, -2.96446290e-002,
          6.88488013e-004, 7.82803749e-004, -4.37722495e-003,
          7.84202130e-004, 1.59958110e-003, 4.83841076e-003,
          2.74261227e-003, 9.48472135e-003, 2.84799598e-002,
          2.49428023e-002, 2.84827501e-002, 1.33488700e-002,
          1.78084022e-003, -6.10078871e-003, 2.67907721e-003,
          9.89218126e-004, 1.55476539e-003, 6.65629888e-003,
          1.13024730e-002, 3.71383019e-002, 2.81106308e-002,
          -2.67730607e-003, 4.04386967e-003, 2.06692759e-002,
          8.63478519e-003, -8.19945429e-003, 1.19210258e-002,
          2.77375486e-002, 1.90936439e-002, 1.87789230e-003,
          -1.93204533e-003, -2.52788840e-003, 1.88562963e-002,
          1.99270733e-002, -5.79981459e-003, 3.73185379e-003,
          2.34306529e-002, 3.53978910e-002, 2.53002588e-002,
          -6.28425414e-003, -9.37504694e-003, -4.17288771e-004,
          1.34092132e-002, 1.06646977e-002, 2.18432117e-003,
          -6.05776394e-003, 1.60012972e-002, 2.12344527e-002,
          9.84307751e-003, 7.96751771e-003, 6.76259864e-003,
          9.06144362e-003, 1.52489301e-002, 2.25690417e-002,
          -7.34828529e-004, 1.42811155e-002, 9.78630036e-003,
          -1.12310378e-003, 2.71856831e-003, 1.44618191e-002,
          1.67349186e-002, 1.41601847e-003, 4.57283459e-005,
          1.43725956e-002, 3.88265066e-002, 2.58242451e-002,
          1.35443909e-002, 1.36467787e-002, 1.91508699e-002,
          1.84329953e-002, 3.23597575e-003, 2.09092665e-002,
          7.03206239e-003, 2.02197470e-002, 1.45985391e-002,
          2.23477203e-002, 1.70254763e-002, 9.63026006e-003,
          -2.34647258e-003, 2.56474665e-003, 8.25665426e-003,
          6.89574983e-003, 2.19296180e-002, 1.65184140e-002,
          -2.10470258e-004, 3.49258073e-003, 5.23798075e-003,
          2.84705870e-003, 6.63029356e-003, 2.99360952e-003,
          -7.53035885e-004, 5.84248686e-003, 7.79491058e-003,
          2.37483364e-002, 2.09301952e-002, 2.69350056e-002,
          9.47618205e-003, -4.84555541e-003, 1.28067723e-002,
          8.88438616e-003, 7.71212112e-003, 1.61250830e-002,
          2.43237913e-002, 2.10037250e-002, 2.98149064e-002,
          1.68626383e-002, 1.28789106e-002, -1.72605983e-003,
          1.01746258e-003, -2.08265870e-003, 1.04496768e-002,
          -4.59268969e-003, 8.76109334e-005, 4.80799703e-003,
          1.04781240e-002, 1.57014318e-002, 5.86957345e-003,
          6.32312754e-003, 3.41815013e-003, 2.25630961e-003,
          -1.02610560e-003, 6.10380713e-003, 2.14429325e-004,
          3.36399302e-002, 1.26649430e-002, -1.07139517e-002,
          1.06309261e-002, 8.90180841e-003, 3.53374099e-003,
          1.21260956e-002, 9.55726951e-003, 1.66652445e-002,
          1.10950265e-002, 6.59835013e-003, 2.74952909e-004,
          5.23113320e-003, -5.32582821e-003, 1.43826716e-002,
          2.91332938e-002, 1.87856797e-002, 7.62189506e-003,
          2.88389158e-002, 3.82670760e-003, -1.07190385e-002,
          3.40312859e-003, 5.06521203e-003, 2.07768269e-002 ]
   decision_functions:
      -
         sv_count: 1
         rho: 7.2850179195404041e-001
         alpha: [ 1. ]
